digraph Tree {
node [shape=box, style="filled, rounded", color="black", fontname="helvetica"] ;
edge [fontname="helvetica"] ;
0 [label="isFemale <= 0.5\ngini = 0.473\nsamples = 891\nvalue = [549, 342]\nclass = 0", fillcolor="#f5cfb4"] ;
1 [label="Fare <= 26.269\ngini = 0.306\nsamples = 577\nvalue = [468, 109]\nclass = 0", fillcolor="#eb9e67"] ;
0 -> 1 [labeldistance=2.5, labelangle=45, headlabel="True"] ;
2 [label="isMinor <= 0.5\ngini = 0.226\nsamples = 415\nvalue = [361, 54]\nclass = 0", fillcolor="#e99457"] ;
1 -> 2 ;
3 [label="gini = 0.184\nsamples = 399\nvalue = [358, 41]\nclass = 0", fillcolor="#e88f50"] ;
2 -> 3 ;
4 [label="gini = 0.305\nsamples = 16\nvalue = [3, 13]\nclass = 1", fillcolor="#67b4eb"] ;
2 -> 4 ;
5 [label="Fare <= 26.469\ngini = 0.448\nsamples = 162\nvalue = [107.0, 55.0]\nclass = 0", fillcolor="#f2c29f"] ;
1 -> 5 ;
6 [label="gini = 0.0\nsamples = 4\nvalue = [0, 4]\nclass = 1", fillcolor="#399de5"] ;
5 -> 6 ;
7 [label="gini = 0.437\nsamples = 158\nvalue = [107.0, 51.0]\nclass = 0", fillcolor="#f1bd97"] ;
5 -> 7 ;
8 [label="Pclass <= 2.5\ngini = 0.383\nsamples = 314\nvalue = [81.0, 233.0]\nclass = 1", fillcolor="#7ebfee"] ;
0 -> 8 [labeldistance=2.5, labelangle=-45, headlabel="False"] ;
9 [label="Fare <= 28.856\ngini = 0.1\nsamples = 170\nvalue = [9, 161]\nclass = 1", fillcolor="#44a2e6"] ;
8 -> 9 ;
10 [label="gini = 0.18\nsamples = 70\nvalue = [7, 63]\nclass = 1", fillcolor="#4fa8e8"] ;
9 -> 10 ;
11 [label="gini = 0.039\nsamples = 100\nvalue = [2, 98]\nclass = 1", fillcolor="#3d9fe6"] ;
9 -> 11 ;
12 [label="Fare <= 23.35\ngini = 0.5\nsamples = 144\nvalue = [72, 72]\nclass = 0", fillcolor="#ffffff"] ;
8 -> 12 ;
13 [label="gini = 0.484\nsamples = 117\nvalue = [48, 69]\nclass = 1", fillcolor="#c3e1f7"] ;
12 -> 13 ;
14 [label="gini = 0.198\nsamples = 27\nvalue = [24, 3]\nclass = 0", fillcolor="#e89152"] ;
12 -> 14 ;
}